,0,1,2,3,4,5,6,7,8,9,10,11,12,13,14,15,16,17,18,19,20,21,22,23,24,25,26,27,28,29,30,31,32,33,34,35,36,37,38,39,40,41,42,43,44,45,46,47,48,49
ex:country,-0.051704526,0.007061193,-0.11446605,0.08236092,-0.07358915,-0.064678155,0.003013372,-0.21124978,-0.25205165,-0.36780185,0.19068904,0.24668096,-0.070461564,-0.041544467,-0.020483436,0.18471076,0.09183532,0.0773789,0.046734173,0.14153142,0.15594749,0.107866086,0.17679386,0.24648839,0.3413961,-0.20954287,0.0016046319,0.10369272,-0.029374152,-0.25881678,0.1751225,-0.16149467,-0.15565498,-0.29146418,-0.22880419,-0.41185126,0.047001556,-0.22769783,-0.090270855,-0.14159352,-0.020726092,-0.12143798,0.3285285,0.1625707,-0.37512615,-0.020936621,-0.34711054,-0.24683625,0.13680005,0.108293146
ex:lastWatched,-0.13290976,-0.14161281,-0.040344145,0.09106589,-0.14304821,0.13747184,0.27686766,0.044193067,0.13704422,-0.036926292,-0.13060546,-0.034638934,-0.13519025,0.08563546,-0.19644219,-0.33258364,-0.26020688,-0.07848008,0.018289013,0.18556897,0.07409168,0.14568767,0.0409387,-0.12933348,0.25273007,0.22837527,-0.22610347,0.120352425,-0.15959796,-0.18674462,-0.14541744,-0.11042502,-0.13138095,0.36544248,0.03408775,-0.20503533,0.0751236,0.070572406,-0.09860371,0.060207535,-0.26982075,-0.26913744,0.26260597,-0.16486494,-0.17803739,0.095874175,-0.3696445,-0.097030394,-0.24729112,-0.1176902
ex:liked,-0.11687379,-0.2742743,0.028114375,-0.145494,0.03470014,0.34271234,-0.08572732,-0.098399185,0.054775923,0.07073218,-0.25606403,0.24714147,-0.00832887,0.22483958,-0.06768645,-0.11663432,0.08385009,-0.12525557,-0.10812523,0.0069330353,0.2890772,-0.036446583,0.32978067,-0.111114316,0.27148587,0.2498691,-0.28950068,0.4121723,0.13578,-0.3606093,-0.30724034,-0.04786553,-0.14508815,0.032231826,0.02571803,-0.19761138,0.20343289,-0.3376096,0.3081131,0.27258888,-0.35567662,-0.3059998,0.18327203,-0.06286965,-0.1393118,-0.08907062,-0.07165689,-0.17259872,-0.23164985,-0.06572332
ex:name,-0.10114026,-0.11891716,-0.1871348,0.0059427246,0.09109259,0.11897001,0.11088052,0.16614547,0.22215219,-0.038717866,-0.13472527,0.082764566,-0.0032900875,-0.09308249,0.17320992,-0.19369671,-0.19555975,-0.10068656,-0.20441352,-0.24586369,-0.15788291,-0.26909003,-0.09117455,-0.010031962,0.15062083,0.3586756,0.0048570707,-0.07216833,-0.0034293903,-0.034031603,-0.055606056,0.36104265,0.098297045,0.27927762,-0.1803743,-0.006439333,-0.20999393,-0.17469004,0.19785745,-0.03685277,0.16278997,0.20875673,-0.077242665,0.10001281,0.17198692,0.0047757565,0.25043547,0.31631863,-0.015404906,-0.107066825
ex:originalLanguage,-0.1330029,-0.4106837,0.22957128,-0.41466248,0.0682185,0.10278051,0.10380878,-0.06970385,0.13775878,0.10846252,-0.0020446307,-0.09991336,0.10366801,-0.011065877,0.0029707905,0.09257691,-0.17999074,0.11422229,0.08175396,-0.23570354,0.21195935,0.17726184,-0.26873383,0.14869185,0.20138666,-0.045049872,-0.40528616,0.2014342,0.02382164,-0.3152244,0.26043078,0.17243144,0.11736438,0.059671957,-0.0058535165,-0.045968276,0.034032103,-0.0040894607,0.10156545,-0.039488122,-0.14802177,-0.068697006,-0.07021968,-0.066177,-0.1385177,-0.27610877,-0.08522099,-0.0070975353,-0.1308671,-0.11645899
ex:popularity,0.22876398,-0.10189213,-0.076170966,-0.26127595,0.21982357,0.1013186,0.06583358,0.072447434,0.06610487,-0.06310752,-0.15769121,0.011907235,-0.102164745,-0.090578906,0.24286604,-0.06955732,-0.060063306,0.15579066,-0.0737844,-0.061241135,0.0008068213,-0.080351725,0.18521513,0.0819487,0.010471395,0.11999763,0.017993638,0.19134231,-0.24962886,-0.31243712,0.12125374,-0.046585076,-0.06804229,0.02671068,0.06381627,-0.1603914,0.28058982,-0.039469108,0.13192973,-0.18826328,-0.16869028,0.0046872697,0.009352339,-0.020788366,-0.14928281,0.07059899,-0.061131123,0.15057573,-0.15489846,-0.102870785
ex:productionCountry,-0.19610685,-0.21483657,0.2587558,-0.066576414,-0.033093758,0.15124944,-0.1908851,0.0996375,-0.12972035,-0.33830783,0.0065468606,0.13533553,-0.043252066,-0.044570725,-0.07788059,-0.18292162,-0.2590067,-0.25678816,0.029947095,0.25476903,0.17891608,-0.09697094,0.31619963,0.1734656,0.4175136,0.028089374,-0.26247126,0.16617987,-0.040864248,-0.42236698,-0.06308724,0.17222916,-0.10450626,-0.2585089,0.049555544,-0.32474193,0.25959417,-0.0080290185,-0.16247232,-0.21593559,-0.31806564,-0.25209984,0.15762943,-0.2252053,-0.24514385,-0.346469,-0.42429212,-0.28750274,-0.20693769,0.023745373
ex:timesWatched,0.08240855,0.1780027,0.03970088,-0.15200762,0.019915365,0.012589744,0.013613149,0.092262745,-0.2772306,0.13051349,-0.22371966,0.30338845,-0.13113888,0.0009359565,0.10040198,-0.2212605,-0.12337374,-0.18750142,0.02844246,0.2997467,-0.027859062,-0.17563173,0.24023756,0.03404016,-0.022865262,0.017364094,-0.091087036,0.12621404,0.18335214,-0.042548176,-0.22513315,0.13928373,-0.079876274,0.28289333,0.022612961,-0.1241123,0.2744744,0.27778697,0.24505806,0.14973642,-0.21894486,-0.2734957,-0.005354627,-0.38420728,0.1037288,0.031062264,-0.14159596,-0.20345157,-0.15999344,0.17557217
rdf:type,0.19857733,0.13302931,-0.014433422,-0.2106268,0.14669658,0.19570713,-0.09957198,-0.22472554,0.19961137,0.17613116,0.033996295,0.1961501,-0.12668052,-0.030347938,0.028671077,-0.1272676,-0.18466991,0.40048972,-0.11915642,0.028959682,0.19042568,-0.2035987,0.062149394,0.06454549,0.059603367,0.004400655,0.19257383,0.15349129,0.2550552,0.045032106,-0.21053302,0.041562747,-0.25969848,-0.031735722,-0.14028843,0.14581749,-0.09837041,0.050623655,-0.23344386,-0.17056923,0.14125843,-0.19427043,0.09560722,-0.16320802,-0.11402446,0.0531242,-0.1116607,0.09240592,0.18760914,-0.042860802
schema:actor,0.032400332,-0.05897801,-0.14163151,-0.07849605,0.23843856,0.24744208,0.18634875,0.13300891,0.12461059,-0.17030598,-0.2739101,0.029052174,0.06830325,0.16676623,0.15676524,-0.16015437,-0.17147377,-0.14847428,0.16113682,0.15396306,-0.15792596,0.066490285,0.015622403,-0.08465895,0.21643537,0.072841235,-0.2724329,0.29885575,-0.07079673,-0.321005,0.19432557,-0.12639612,-0.10624125,0.13180421,0.17447706,-0.17368884,0.026447268,-0.17499371,0.14422369,0.1424145,-0.0035633724,-0.2682594,0.15617077,-0.29780075,-0.15819284,-0.22422494,-0.2048627,-0.20021695,-0.35159183,0.105278924
schema:aggregateRating,0.07250253,-0.08377455,0.1310559,-0.35676414,0.0113666365,-0.040282805,-0.098434284,-0.04318575,-0.018966489,0.23486899,-0.267367,0.16091797,0.049756184,-0.21768177,-0.08351097,-0.12227208,-0.103971526,-0.12532607,-0.04370439,0.015639013,0.1250993,-0.044866227,0.015801214,-0.075155534,0.20033094,-0.055199355,0.026300574,0.31326875,0.04221347,-0.25124034,0.067944475,-0.13311289,0.14364323,-0.16926388,-0.14096178,0.021924533,0.18353127,-0.0061000134,-0.15849645,-0.083038315,-0.046317715,-0.27347574,-0.084603965,-0.18486552,-0.040140633,0.08908241,-0.17725416,-0.26862344,-0.28769425,-0.032352842
schema:character,0.08213112,-0.14160268,0.21293722,-0.24759696,0.19179358,0.256213,0.21276627,-0.14907642,0.066119075,0.06852975,-0.10212893,0.18884201,0.06559521,0.20143902,-0.003311484,-0.25634414,-0.16253573,0.15222315,-0.05160983,0.1914321,0.19021022,-0.026555289,0.23594274,0.041323043,0.24522465,0.18887272,-0.24342792,0.2641321,0.1262459,-0.2967965,-0.09512807,0.082414515,-0.10615344,0.13400865,0.0416827,0.09264875,0.27539518,-0.04383359,-0.11912411,-0.21126924,-0.20131674,-0.1311683,-0.084536694,-0.27435672,-0.10663922,-0.13994583,0.024179997,-0.05996588,-0.18231945,-0.13674195
schema:countryOfOrigin,-0.010226851,-0.109276995,0.13844049,-0.1051469,-0.05323968,0.27012315,-0.11089487,0.08637068,-0.11877178,-0.31856897,-0.13252673,0.13683936,-0.11405236,0.1534943,-0.14198196,-0.29078186,-0.23810937,-0.1941345,0.045673467,0.24972828,0.11827186,-0.043975364,0.22837889,0.12626886,0.3877006,0.032243513,-0.34132794,0.017249368,-0.06791966,-0.4798166,-0.06853524,0.22637284,-0.18036939,-0.20521796,0.07385434,-0.25135365,0.25231603,-0.031772908,0.005989221,-0.26289704,-0.29855254,-0.36855906,0.14735974,-0.17282283,-0.2522247,-0.12336529,-0.38223284,-0.16160926,-0.21189323,0.015184073
schema:datePublished,0.15008481,-0.41694647,-0.084490985,-0.050032277,0.12573482,0.022094604,-0.022637242,-0.0070087095,-0.13931398,0.03856061,-0.2298697,0.07331541,-0.14022534,0.047633126,0.2801892,-0.2998181,0.021835051,0.16073152,0.27275398,-0.11414587,0.036957856,-0.22160196,0.27637023,0.16722566,0.13250142,-0.047383904,-0.07592044,0.11968671,-0.15621962,-0.11735347,-0.0744116,0.15967329,0.18311565,0.010223684,0.096890055,-0.1933217,0.12778674,-0.10680792,0.21004291,-0.31243086,-0.06283388,-0.32553738,0.25323978,-0.4527196,-0.25294062,0.013757468,0.13262336,0.14785463,-0.37408414,0.12113375
schema:director,0.09262942,-0.37271476,0.09799657,0.035405993,0.024568757,0.19456786,0.19596861,0.15161347,0.049642146,-0.17812537,-0.38881668,0.1699744,0.048976254,-0.16993894,0.015185164,-0.0040754573,0.08189485,-0.24807432,0.021233613,0.16418295,-0.20728557,0.14032532,0.27936998,-0.116537035,0.19825682,0.0837766,-0.27656877,0.0808957,0.0024122226,-0.18462293,-0.08520291,0.039828595,0.011835515,0.28157622,0.057605386,-0.058733422,0.11932529,0.11140698,0.17879072,-0.061381742,0.028248379,-0.08483509,-0.021937879,-0.30248913,0.1450609,-0.074189454,-0.067476496,0.114818,-0.2577262,-0.061714288
schema:duration,-0.020560797,-0.116133474,0.14951344,-0.03866917,0.47023195,0.09148503,0.23062378,-0.10166406,0.31244868,0.0210405,-0.065424144,0.14390801,0.118849285,0.2637715,0.32469943,-0.14183247,-0.17087026,0.1880795,0.24116683,0.2718828,0.11120754,0.066419065,-0.13882974,0.021077584,0.021706086,-0.05076889,-0.1858887,0.14001279,-0.23076515,-0.21888132,-0.10478704,0.12731713,-0.27539107,0.042926755,-0.089180216,-0.28144047,0.49837038,-0.311469,-0.15110503,-0.0118253995,0.11070169,-0.06647406,-0.18410602,-0.24120475,0.08380626,0.039606195,-0.2026431,-0.22370419,-0.37546888,0.036931053
schema:genre,0.2641302,-0.0056929565,-0.088303044,-0.38207933,-0.03460847,-0.06332974,-0.034948133,-0.13598217,0.2512306,-0.05143097,-0.26944292,0.2048488,0.3433818,0.1122315,-0.026460059,-0.17945528,-0.15752937,-0.1747463,0.00050776306,0.4052647,0.24128823,0.2674685,-0.0886387,-0.21064948,0.38000453,-0.17430389,-0.3746624,0.13003594,0.19289835,-0.25516927,-0.12693074,-0.16927303,0.08861008,-0.034212224,0.26689297,-0.03889539,0.43621108,-0.12068977,0.032642957,-0.029319914,-0.2905485,-0.49119464,-0.032690417,-0.34894466,-0.16714725,-0.11121237,-0.10341073,-0.1994615,-0.31208244,-0.07477468
schema:inLanguage,-0.11587817,-0.3220807,0.2843297,-0.2982524,0.11410404,0.0963555,0.11365902,0.02303262,0.20907444,0.17734519,0.031262126,-0.19333483,0.19435339,0.123798415,-0.06521294,0.08917504,-0.25178894,0.12391304,-0.18726987,-0.26572827,0.051803082,0.043920998,-0.26338243,0.18625517,0.22554168,-0.033190835,-0.4339241,0.13934842,0.04159238,-0.33925855,0.28643098,0.17644489,-0.20364511,0.094514035,-0.06811974,-0.0108007835,0.08741711,0.033853512,-0.019103842,-0.1893534,-0.1671125,-0.172979,-0.04842046,-0.061127372,-0.11925798,-0.44652212,-0.08827674,-0.021734016,-0.2086814,-0.00088237587
schema:name,0.050511207,0.02423308,0.12974739,-0.12493015,-0.077635325,-0.12988001,0.09158347,-0.07714096,-0.08409733,-0.0713184,0.18267992,0.07781914,-0.096545056,-0.11097426,0.11557802,-0.17349179,0.046925426,0.1167243,-0.07297921,-0.14514877,0.21607837,0.09056528,0.015821524,0.094087295,0.16758583,0.08805795,0.09555408,-0.08913526,-0.11510818,-0.10991108,-0.10679118,-0.05296744,0.11144894,0.0057517528,-0.19157587,-0.06863142,0.18318844,-0.05369,-0.09141104,-0.13343287,-0.09241395,0.023011263,0.11450831,0.087285824,-0.09784814,0.15470254,-0.03634847,0.117546394,0.0035216499,0.07373769
schema:productionCompany,-0.1621354,-0.15556873,0.22026573,-0.06647418,0.1843164,0.15038371,-0.052286677,0.21833919,0.1254699,-0.01940268,-0.16078399,-0.07806618,0.08754992,-0.060611468,-0.0686097,-0.45255148,-0.19908027,-0.24740088,-0.14639938,-0.004815244,-0.006051253,0.034642015,0.19451341,-0.10670706,-0.06445327,0.33981705,-0.34116006,0.17730021,-0.11768633,-0.009187752,-0.03584185,0.29037368,-0.1714563,0.0650662,0.28722605,0.023977172,0.22953577,0.09769074,-0.0840822,-0.076293476,-0.29550204,-0.1589219,0.076972246,-0.2499751,0.17617702,-0.17023158,0.005932353,0.14370903,-0.28985405,-0.0088825105
schema:review,-0.18653293,-0.09586801,0.09761247,-0.31896362,0.30732164,0.22996639,0.13340816,0.029398497,-0.06966004,-0.26889893,-0.034652773,0.033457156,-0.019455887,-0.1485739,0.23515281,-0.4091498,-0.42870924,-0.036731716,-0.14178306,-0.086428285,0.1273865,0.24323158,-0.21634308,0.23114249,0.10631839,0.3282614,-0.17181292,0.30388084,-0.20954406,-0.110559426,0.06643626,-0.03794726,-0.091252364,-0.049118154,0.28445667,0.13747278,0.23167953,-0.007849272,0.12858531,-0.19837174,-0.06746574,-0.32788777,-5.0095492e-05,-0.16968946,-0.16054809,0.111914665,-0.41323367,-0.116988875,-0.14001797,-0.15213487
