,0,1,2,3,4,5,6,7,8,9,10,11,12,13,14,15,16,17,18,19,20,21,22,23,24,25,26,27,28,29,30,31,32,33,34,35,36,37,38,39,40,41,42,43,44,45,46,47,48,49
ex:country,-0.0875072,0.22392811,-0.10609183,-0.31413594,0.24953088,0.06744796,0.2702391,0.28468564,-0.2557947,-0.267451,0.037084013,0.01809219,-0.1020101,-0.18091792,0.0885232,0.11561467,0.119260244,-0.009669793,-0.28369844,0.0076835505,0.045019057,0.19590981,0.037171315,-0.056774482,-0.22326641,-0.51728314,0.07220335,0.11652963,0.026540274,-0.095201254,0.22026579,0.13962121,-0.14042622,0.14588574,0.03647307,-0.07135199,-0.03654278,-0.20400438,0.14163136,-0.24726892,0.26232034,0.33400413,-0.063324645,-0.22715724,0.22210062,0.14115776,-0.25284284,0.012054531,-0.15269521,0.23355195
ex:lastWatched,0.057143692,0.026387213,0.12792923,0.39874628,-0.046472047,-0.45182773,0.1188416,0.16513169,0.068172745,0.07803696,-0.12822229,0.027025055,0.13094936,-0.2645732,-0.15997918,-0.20828529,-0.054882124,0.067061454,0.050290108,0.009240855,0.14490645,0.0015403796,-0.08179811,-0.2024144,0.14698009,-0.056249626,-0.13075483,-0.099685974,-0.3883301,-0.13333851,0.16392417,0.27245694,0.091056846,0.24314916,0.018167408,0.19819239,0.037206113,0.29134288,-0.059164286,0.19171135,-0.025353398,-0.18454285,0.005774036,0.02711817,0.115609765,-0.17251042,0.18782337,0.21034198,0.033831142,0.2818683
ex:liked,-0.20504269,-0.17459898,-0.011060981,0.27627987,0.13728943,-0.036346372,0.1407495,0.04672462,-0.22966154,0.32508534,0.062163625,0.34153882,0.120174274,0.04345589,-0.06453962,-0.25451,-0.21297252,-0.027282348,0.25772336,-0.40919894,-0.057296626,0.041328058,0.04771487,-0.2816118,0.045331,0.16183369,0.1899812,-0.04872276,-0.30834103,-0.01580882,0.25478536,0.038926005,-0.013373587,0.3703387,0.10769631,0.0058029164,0.30257127,0.021834219,-0.2262421,0.21695603,-0.057753686,0.038492125,0.25521106,-0.103869595,-0.033333205,-0.2374279,0.23120572,0.2100113,-0.2687328,-0.13190138
ex:name,0.23543678,-0.24876976,0.06668333,0.064302914,0.066442356,0.13926001,-0.23586342,0.037941385,-0.19527261,0.12368662,0.01869312,-0.10628381,-0.028308293,0.013645949,0.07533928,0.08553926,0.0013835889,-0.047786262,0.07805683,0.06418375,0.05318846,-0.1236625,-0.24830177,0.052836675,0.09636321,-0.19161038,0.27334172,-0.089208946,-0.13693582,0.0960674,0.19122227,0.2575447,0.12199862,0.23877105,-0.07875811,-0.1275109,0.09641973,-0.3486069,0.010030196,-0.012732243,-0.116706796,-0.019895224,0.09215705,-0.1274775,-0.08531625,0.16381542,0.20282087,0.29066575,-0.11788598,-0.038592294
ex:originalLanguage,-0.06064308,0.07184678,0.088905856,-0.20858638,0.4540918,-0.28703296,0.22186789,-0.15229234,-0.051208574,0.11858038,0.1394902,0.057265542,-0.10303128,-0.20141718,0.06799568,0.11106679,-0.07804879,-0.18321359,-0.18345323,-0.28895375,0.1492003,0.12127284,-0.31908402,-0.19966881,0.010037561,-0.2250018,-0.027526906,-0.085301794,0.046307605,-0.0038946993,-0.11967392,0.08333151,0.04884828,0.059656996,-0.0917728,0.22545022,-0.026723953,0.06224811,-0.20691791,-0.087383665,-0.18058442,0.08370678,-0.08861366,-0.13740171,-0.06015731,-0.007629974,0.13411826,-0.111914404,-0.2352306,0.31312218
ex:popularity,0.10862204,-0.12247371,0.14231937,0.19941992,-0.008407398,-0.22663398,0.2473166,0.08340087,-0.0044520316,0.00367745,0.088263795,0.26073062,-0.014815429,-0.118219584,-0.08381632,-0.122168206,-0.21147658,0.07473794,0.121899895,-0.04155385,-0.024768585,0.19041494,0.10927726,-0.045295656,-0.093028754,-0.21756065,-0.0141751515,-0.080784656,-0.18460467,-0.025978018,0.06617918,0.18288042,0.11062198,0.07247644,-0.06470456,0.099251956,-0.10348055,0.23216444,0.0823686,-0.0022259066,-0.1570426,-0.058438092,0.111408435,-0.22760424,0.15440622,-0.15352488,0.11314293,0.11282542,-0.01486617,0.21665958
ex:productionCountry,-0.16276494,-0.029733963,0.30982095,-0.11763313,0.5265432,-0.3429108,0.17344362,0.11705862,-0.12143584,0.078086644,0.048574015,0.48131114,-0.08097928,-0.2679868,0.18302137,-0.1496279,-0.010891305,0.20235063,-0.0008471151,-0.21564849,0.18868367,-0.021535888,-0.19934246,-0.27953973,-0.26558515,-0.1708945,0.12918968,0.051828343,-0.29929563,-0.101086885,0.41886854,0.3930854,-0.21482478,-0.030192073,-0.17161249,0.28188738,0.00941312,0.07576462,0.016140666,-0.33714733,-0.118432775,0.24504223,-0.17638287,-0.47645897,0.3321195,-0.067016505,-0.008200322,-0.069069386,-0.3266846,-0.041507892
ex:timesWatched,-0.13404563,-0.10378123,0.102849,0.083839074,0.006002647,-0.44037518,-0.0055235755,0.09079435,0.12633759,0.123307936,-0.25740612,0.20345885,-0.22582568,-0.10954849,-0.021575706,0.14108698,-0.46284127,0.25186476,0.0008591208,-0.36918047,-0.26492026,-0.06087669,0.049810663,-0.1479706,-0.08792888,0.049631115,0.013087937,0.044608887,-0.23739147,-0.042557444,0.08909831,0.28396773,-0.4242487,0.26088288,0.062371407,0.28600612,0.0923374,0.27372712,0.13627517,0.15586793,-0.057290997,-0.24179886,-0.10744051,0.13929482,-0.08095351,-0.18160735,0.18956065,-0.04295092,-0.10107259,0.044081498
rdf:type,-0.057327706,0.30492198,-0.5016362,0.04414339,-0.09032781,-0.17463614,0.08697068,0.08498234,0.19289371,-0.0012985378,0.02410371,0.053454634,-0.06177169,0.015761599,0.18732129,-0.10683562,0.15173505,0.15578158,-0.004837288,0.000397194,0.053836655,-0.21701321,0.32802123,0.08198504,0.09274472,-0.06588982,0.082579,-0.30176616,-0.08662247,0.18616502,0.032921586,0.07496503,-0.0023517855,0.09732146,0.040416714,0.2019912,-0.060953893,0.008786806,-0.19015917,0.31801635,0.03851752,0.12273658,0.2034882,0.045711864,-0.11817206,-0.3532618,-0.20216392,0.2943257,0.23067883,0.34932393
schema:actor,-0.073510945,0.05871987,0.35609764,0.14908022,0.28457692,-0.2139159,0.23196119,-0.08366298,-0.35011193,0.23393354,0.093887806,0.23464149,-0.2446997,-0.28505078,-0.12410439,0.08052077,-0.068912685,0.23198678,-0.055326708,-0.24853854,0.043673,0.19868314,-0.05475434,-0.219742,-0.014573221,0.09947143,-0.15739672,0.13189867,-0.28487194,-0.10490464,0.2670698,0.0738078,-0.0039259954,0.17182575,-0.2488669,0.09995174,-0.1179806,-0.06689933,-0.13873109,-0.13955559,0.030268976,0.19161552,-0.23883885,-0.018252568,-0.13435791,-0.1684911,0.1249965,-0.06735866,-0.23419681,0.098718256
schema:aggregateRating,0.2040844,0.2070707,0.19811945,0.032216754,0.23091324,-0.31211752,0.004068027,-0.042739928,-0.043327443,0.23481931,0.16407989,0.24594745,-0.11603006,-0.26001525,-0.20721202,0.016473085,0.052469127,0.09437301,0.12257641,-0.23585926,0.1028333,0.05853573,0.0049950676,0.047018386,-0.11665231,-0.21917251,0.047418755,-0.11118733,-0.014513734,0.023710238,0.13406882,-0.10409313,-0.15005803,0.18427987,0.05479387,0.30627638,-0.07593652,0.13164735,-0.17279902,-0.16240795,-0.10086876,0.05869501,-0.08723464,-0.05875085,-0.032557774,-0.11726483,-0.0045157415,0.13991006,-0.036694407,-0.042585492
schema:character,-0.14385375,0.17779623,0.26866135,0.032110415,0.29385164,-0.2629369,-0.018592957,-0.07184196,-0.123159625,0.13292848,0.13924213,0.07082826,0.028116351,-0.29242855,-0.109626085,-0.16756555,-0.14434001,0.2660954,0.038452443,-0.23866907,0.121473014,-0.057516456,-0.10245407,-0.282931,-0.10305133,-0.019222483,0.12717968,-0.17709966,-0.34390894,0.014398019,0.18883114,0.11403875,-0.20663267,0.073967405,0.066416666,0.18203275,0.17564951,0.02468375,0.09758562,0.20516601,-0.17018016,-0.022286199,0.13279629,-0.1569846,0.09698687,-0.3083918,0.03802367,0.23020239,-0.21776098,0.043445017
schema:countryOfOrigin,-0.13280609,-0.06613964,0.36983162,-0.16049491,0.35236418,-0.29139206,0.18879582,0.122047395,-0.16835791,0.08752971,0.022598704,0.4133407,-0.27319,-0.2692197,0.12521623,-0.030236317,0.028447464,0.24557759,0.021354876,-0.17947488,0.31638917,-0.039076246,-0.09186152,-0.119705506,-0.14173779,-0.21873185,0.038227256,0.09389831,-0.37902868,-0.069739334,0.37049475,0.38454783,-0.20236677,0.02164015,-0.22442839,0.13870141,0.044458464,0.053713195,0.04350483,-0.2867925,-0.12602493,0.22766654,-0.10896992,-0.38990602,0.28053963,-0.063156344,0.022301553,-0.032847658,-0.33265275,-0.12034755
schema:datePublished,0.0006902645,0.26331106,0.11131934,0.19452167,0.03191777,-0.29491806,-0.11725281,-0.13274848,-0.18177056,0.17582148,0.14736941,0.38815057,0.016095601,-0.18245125,-0.19805315,0.06369994,-0.24725439,-0.1021703,-0.122182675,-0.27311793,0.25099233,-0.028829727,-0.08089348,-0.34510916,0.10288654,-0.05749778,0.18588032,-0.065261714,-0.4925214,-0.12568986,-0.12238001,-0.00031717392,0.111591384,0.16672443,-0.21175626,0.05885326,-0.22883704,0.22537944,-0.023259802,-0.11520103,0.31420577,0.078292795,0.17879842,-0.2103056,-0.14907159,-0.39239064,-0.039133664,0.095402926,-0.47244197,0.23646668
schema:director,0.030417753,0.036811426,0.31800783,0.115522854,0.30244845,-0.22951117,-0.017633257,-0.13682902,-0.16768485,0.055839974,-0.015422515,-0.071773924,-0.24817887,-0.30519262,-0.051180173,-0.00914379,-0.18817124,0.20451781,0.017194498,-0.27311924,-0.050893646,-0.03131249,-0.17874211,-0.018460557,-0.12504068,0.20290881,-0.039402917,0.06965151,-0.19095567,-0.2742445,0.24433471,0.07545165,-0.22126055,0.23268312,-0.38502917,-0.09709468,0.018117363,0.17605919,-0.097842105,-0.17053595,-0.051766314,-0.037129056,-0.21780051,-0.1262859,-0.028202891,-0.2821924,-0.022841096,-0.1518101,-0.16621178,-0.20042047
schema:duration,-0.14267525,-0.026657274,0.03361938,0.057535067,0.13817973,-0.013311021,-0.04219338,0.11735561,-0.17223698,-0.01672139,-0.29188794,0.26389182,-0.28884232,-0.28176907,-0.13978288,0.04535076,0.09201642,0.06535395,-0.23469733,-0.29935646,0.08464324,-0.08324157,-0.3016549,-0.46700728,0.12703337,0.08488043,0.16884083,-0.36101738,-0.33876446,-0.13173835,0.28682068,0.17856547,-0.16161385,0.15527545,0.18875958,0.011934341,-0.19139571,-0.0959627,-0.28802776,0.041059453,-0.10361019,-0.007440507,-0.05242316,-0.045543183,-0.020357065,-0.24844915,-0.060884442,0.26097897,-0.0009244047,0.1980748
schema:genre,-0.23124288,0.25925237,0.17822094,0.34460434,0.07437691,-0.63283193,0.30332237,-0.07492879,0.091036156,-0.08576989,-0.15407953,0.27040985,-0.29393604,-0.30287826,-0.029333275,-0.14514132,-0.026825346,0.14127553,-0.02088975,-0.23896965,0.100052714,0.20302795,-0.23027752,-0.44158018,0.13176538,0.06921324,-0.10820636,0.055689294,-0.36996296,-0.21026064,0.036885895,-0.101627186,-0.10036755,0.18306966,0.1048163,0.21892011,0.13497138,0.17849214,-0.30578998,-0.025959188,0.19214655,-0.2178547,0.107180186,0.067631096,-0.04955738,-0.599652,0.26668724,-0.11367387,-0.05356045,0.27571514
schema:inLanguage,0.01551164,0.18324426,0.37742192,-0.15264244,0.38872123,-0.3772902,0.22146034,-0.11915485,-0.021638896,0.25746125,0.21180055,0.11115084,-0.035695046,-0.20000987,0.05119003,0.10019125,-0.13071086,-0.1555522,-0.21608149,-0.2419171,0.21007374,0.20207793,-0.24788009,-0.2529429,0.045778524,-0.2410546,-0.014997291,0.013461683,-0.036476105,-0.12341251,-0.13094036,-0.0015561325,0.12112165,0.01813005,-0.032348234,0.38136423,-0.08492332,0.21978466,-0.30153403,-0.22308949,-0.17054714,0.23325732,-0.15091719,-0.2040833,-0.06698068,-0.14204577,0.19982953,-0.14263286,-0.10446809,0.29135594
schema:name,-0.1293537,0.007124317,-0.19287153,-0.09748225,0.0755354,-0.045332044,0.03231744,0.07057695,0.087277144,-0.04204922,-0.06837769,-0.04136787,0.14493094,-0.054190308,0.04235308,-0.19310828,0.07489743,0.07791389,0.06927899,-0.0040612877,0.1685058,0.07879715,0.11603092,0.008936152,-0.021682689,-0.17927544,0.17912379,-0.16680233,-0.128247,0.013470892,-0.08231988,0.0019021853,-0.044768862,0.140777,0.17687748,-0.08473496,0.14730312,-0.07391207,-0.074950084,0.17146203,-0.009321673,0.08074523,0.1681069,0.08868946,-0.043453395,-0.21499506,0.0016787619,0.15332542,0.016013717,0.19715244
schema:productionCompany,-0.04399618,-0.24179056,0.32014257,0.2108061,0.14438781,-0.16098046,0.05656248,-0.12143633,0.10306557,0.33465797,0.12676524,0.22219451,-0.15724485,-0.005413977,0.11173286,0.071692064,-0.28877527,0.13857873,0.23512892,-0.16317381,-0.12628274,0.24759896,-0.01852473,-0.31818244,0.09573959,0.26558396,0.10047095,-0.037963603,-0.31488398,0.055745684,0.08731908,0.20910966,-0.1563626,-0.00575347,-0.19498079,0.023787376,0.1557235,0.07587792,0.09350738,-0.03818101,-0.3115473,-0.07516175,-0.027213782,-0.15130286,0.0050943303,-0.3019001,0.22274114,-0.025883934,-0.04598807,0.01787347
schema:review,-0.12491023,0.27324468,0.4147826,-0.23712997,0.16082148,-0.060310125,-0.060724184,-0.038054366,0.049930364,0.2648249,-0.08199657,0.03204142,-0.16297884,-0.21011852,-0.06939561,-0.35110056,0.011295134,0.0024057513,0.007427025,-0.039294653,0.2850831,0.26943454,-0.24767248,-0.34173504,0.14928883,-0.027487928,-0.059006713,-0.2483618,-0.124227785,-0.004921581,0.30361673,0.4109852,-0.24896984,0.13315861,-0.028531032,0.21154486,-0.12300182,-0.19368294,0.16529462,0.18830547,-0.29437885,-0.053536564,0.20613243,-0.2357786,0.143511,-0.31065342,-0.08510068,0.25409344,0.077169016,0.0033373348
