,0,1,2,3,4,5,6,7,8,9,10,11,12,13,14,15,16,17,18,19,20,21,22,23,24,25,26,27,28,29,30,31,32,33,34,35,36,37,38,39,40,41,42,43,44,45,46,47,48,49
ex:country,-0.035445195,-0.010644356,-0.11732345,0.13524862,-0.1603426,-0.095281176,0.007869508,-0.1887662,-0.19079185,-0.45486104,0.1742298,0.24572732,-0.065824576,-0.049313683,0.008538784,0.19449504,0.049249824,0.075268544,0.07285046,0.121505775,0.15846938,0.05327764,0.104020864,0.3030657,0.3283428,-0.25195462,0.016537867,0.13076325,-0.05031901,-0.28344017,0.16396047,-0.15255499,-0.17394978,-0.25229192,-0.25043908,-0.37089264,0.08188323,-0.21473825,-0.12558861,-0.12878084,-0.038452156,-0.11934007,0.29525635,0.1377618,-0.3728351,-0.06140166,-0.3839452,-0.2542826,0.149297,0.099192224
ex:lastWatched,-0.13624705,-0.1672857,-0.019433988,0.12099811,-0.098106846,0.15886854,0.25842428,0.015102389,0.101062804,-0.07181346,-0.123072736,0.023811499,-0.16739637,0.080217585,-0.1688974,-0.3643424,-0.23623686,-0.103382386,0.017803261,0.11123022,0.083162226,0.1425566,0.08502387,-0.13210854,0.27110934,0.22621062,-0.18925627,0.111340046,-0.14873324,-0.16180271,-0.11893256,-0.15464258,-0.093856074,0.3910538,0.0179991,-0.2316938,0.10520422,0.12303327,-0.1477856,0.06851893,-0.2831598,-0.28072512,0.22717689,-0.15794247,-0.27259064,0.11797139,-0.3687639,-0.09427266,-0.23909609,-0.14687058
ex:liked,-0.14377761,-0.26413134,0.057672326,-0.02395942,0.07798849,0.3261061,-0.032694764,-0.00674714,0.11056603,0.06390818,-0.28240192,0.27818075,-0.105011314,0.2396467,-0.063815705,-0.07601986,0.096093915,-0.06653836,-0.16169024,0.09122993,0.44554675,-0.05272876,0.30740118,-0.11143311,0.30577332,0.28586927,-0.25710416,0.3860276,0.21591632,-0.40908077,-0.29520306,-0.103556044,-0.1832753,0.07770873,-0.009850177,-0.25653008,0.13625073,-0.2656143,0.33928737,0.1623577,-0.321326,-0.30764702,0.18847005,-0.061696105,-0.1956825,-0.25451598,-0.06272274,-0.23272824,-0.19624764,-0.11326576
ex:name,-0.101960786,0.037901383,-0.10812726,-0.013379425,0.1326808,0.11147327,0.11314702,0.24829783,0.10942647,-0.14509115,-0.12531476,0.041544512,0.014748201,-0.015242827,0.22398463,-0.169331,-0.2299177,-0.03737161,-0.217131,-0.30096397,-0.19674326,-0.30229402,-0.15979284,-0.053055894,0.17684792,0.44306728,0.061920397,-0.0111142555,0.12626222,0.015612513,-0.13928418,0.323585,0.052530248,0.34613916,-0.19277535,-0.026575292,-0.18813272,-0.14175697,0.18773907,-0.050736144,0.24493018,0.22973108,-0.25717798,0.012184024,0.09528581,0.021605503,0.30428633,0.2686928,0.03740854,-0.068958856
ex:originalLanguage,-0.14128529,-0.29328823,0.25567678,-0.3393252,0.12198312,0.11231362,0.12010995,0.042722497,0.22364591,0.1796301,-0.05702362,-0.12533988,0.15617369,0.00945909,-0.03012485,0.032711394,-0.16244815,0.2510683,0.013662831,-0.20036574,0.118805565,0.012488962,-0.27582958,0.13344981,0.16281916,-0.09549806,-0.34265456,0.28847688,0.12273535,-0.33462983,0.34792003,0.15453605,0.04748836,0.18624079,0.015328195,-0.066104166,0.05723872,0.03767437,0.031060465,-0.14641173,-0.13258222,-0.059854258,-0.06991722,-0.14004245,-0.114167936,-0.37416947,-0.19441962,0.12348021,-0.095233954,-0.0027503339
ex:popularity,0.23427899,-0.20522682,-0.11636748,-0.25555107,0.23500253,0.08701831,0.0709389,0.09100865,0.10400342,-0.07695676,-0.25985977,-0.017274251,-0.07581438,-0.059137505,0.26008657,-0.055115413,-0.069284394,0.17754494,-0.10517823,-0.07870836,-0.062476248,-0.06510363,0.18804613,0.06686841,-0.0050194697,0.084265806,0.005435024,0.25644946,-0.15354604,-0.30357698,0.17466763,-0.06371777,-0.09585095,0.04820737,0.047079723,-0.13421923,0.26470426,-0.033775456,0.12208678,-0.1942859,-0.15515967,0.014737364,0.06174823,-0.04114861,-0.17532083,0.03152931,-0.12026264,0.11982277,-0.14231808,-0.100453794
ex:productionCountry,-0.21220279,-0.27358058,0.11743207,-0.11811022,-0.024758326,0.1750319,-0.1462455,0.09099469,-0.18282914,-0.39728123,-0.053057972,0.10405511,-0.046087205,0.023236275,-0.13021939,-0.21359253,-0.23489395,-0.14255263,0.06308234,0.2206132,0.2109464,-0.053578135,0.33507988,0.063407935,0.46485746,0.09709226,-0.36096156,0.19215114,-0.039618183,-0.37797216,-0.074702226,0.2096624,-0.1284996,-0.21747035,0.05881881,-0.31382725,0.13365927,0.017215589,-0.090345845,-0.27753448,-0.33173713,-0.3277427,0.15489095,-0.12380645,-0.31871644,-0.29039797,-0.44451597,-0.34975794,-0.31498182,0.01797038
ex:timesWatched,0.09964748,0.13586436,-0.0038581653,-0.10399744,0.055648323,-0.072058015,0.025302256,0.06982508,-0.21998243,0.18457593,-0.2293178,0.23421891,-0.030581461,0.031657197,0.00919153,-0.2272748,-0.14237228,-0.1555817,0.03949586,0.32465762,0.019216377,-0.26752722,0.24308136,0.011743745,0.05091128,-0.049670834,0.006284523,0.13946776,0.2571833,-0.055914607,-0.13960148,0.15628652,0.008876354,0.24374224,0.01146887,-0.14709716,0.23420732,0.22540358,0.22990027,0.10578615,-0.15985586,-0.30493224,-0.10298563,-0.43380988,0.079300284,0.012460661,-0.1792138,-0.26610872,-0.17511664,0.13419388
rdf:type,0.18698557,0.04603352,-0.024554336,-0.22193779,0.13085558,0.20887312,-0.15710662,-0.17252322,0.19211243,0.12492327,-0.008768455,0.16935727,-0.1316306,-0.0857587,0.03601469,-0.1520639,-0.1772368,0.4159751,-0.14659125,0.017382316,0.17461006,-0.19643186,0.021345375,0.060728297,0.058803737,-0.005271121,0.21466124,0.14606935,0.24887303,0.048817273,-0.20818618,0.01828913,-0.25594917,-0.031846985,-0.13112216,0.1469245,-0.122261845,0.06998357,-0.22576493,-0.15289035,0.13685063,-0.20172182,0.091133215,-0.17821102,-0.056656696,0.04979984,-0.099206656,0.114027336,0.20246808,-0.066352285
schema:actor,0.013609057,-0.0412326,-0.16419396,-0.06082905,0.27433872,0.25114492,0.1723622,0.08934677,0.08890344,-0.17178753,-0.2926344,0.031094918,0.08671586,0.1712583,0.16974269,-0.17193043,-0.15857418,-0.17187752,0.14565541,0.2014323,-0.14338519,0.03827839,0.08458584,-0.06463726,0.22419111,0.09508444,-0.23091854,0.28968,-0.02627628,-0.36061677,0.17852245,-0.105092406,-0.08667795,0.121332176,0.20650011,-0.17982666,0.028409941,-0.12276785,0.13317332,0.14966942,0.03470105,-0.25166458,0.18984392,-0.27864546,-0.15380558,-0.22523315,-0.17355123,-0.21298613,-0.37029764,0.07392927
schema:aggregateRating,0.017610572,-0.12647836,0.091991946,-0.32433823,-0.005365337,-0.0897928,-0.1402997,-0.05960774,0.024761124,0.21295314,-0.20662032,0.1715576,0.046113405,-0.2408369,-0.13545433,-0.13166603,-0.06366606,-0.07989089,0.022051273,0.07416661,0.10093644,-0.036822267,0.05038654,-0.057873156,0.1855799,-0.026242109,0.058678456,0.3130483,0.13892211,-0.22494249,0.116531886,-0.123951405,0.16703038,-0.08510897,-0.15711373,0.008364515,0.17596579,0.00700577,-0.1188261,-0.061725073,-0.08206204,-0.22107899,-0.1200048,-0.18593659,-0.04811277,0.06440304,-0.20561998,-0.2355519,-0.3384147,0.0021404177
schema:character,0.095513426,-0.19383551,0.16188273,-0.24286832,0.20914155,0.22741605,0.18622057,-0.12388531,0.058252104,0.07285512,-0.09653248,0.19767506,0.103052296,0.2064881,0.025363062,-0.2475633,-0.16671248,0.15136015,-0.05724319,0.20416571,0.18255356,-0.05708616,0.2595912,0.04895769,0.25506085,0.16547285,-0.23148508,0.26456884,0.14444306,-0.3359912,-0.044391952,0.05704968,-0.083027184,0.1403813,0.034067433,0.08395401,0.27757895,-0.01719793,-0.12656553,-0.2026581,-0.20668466,-0.1510719,-0.09126528,-0.2849305,-0.08459296,-0.14334919,0.0027574354,-0.066382006,-0.21712857,-0.14729796
schema:countryOfOrigin,-0.16135712,-0.19318599,0.13092457,-0.1114437,-0.031425174,0.24261788,-0.16572174,0.09966877,-0.13244279,-0.37427625,-0.06869928,0.04170262,0.0030714371,0.0114013,-0.04889124,-0.29554945,-0.2584623,-0.21103825,-0.005130016,0.19766365,0.20006841,-0.17210732,0.2594618,0.11123237,0.3309138,-0.02411898,-0.3221727,0.11382831,-0.03717845,-0.3953929,-0.01759893,0.21674329,-0.15083438,-0.23298001,0.041394647,-0.31621313,0.24491166,-0.032709688,-0.018154552,-0.2173255,-0.38430995,-0.32902172,0.16156134,-0.06771161,-0.20754774,-0.18069395,-0.39412084,-0.2647808,-0.32157308,-0.034736376
schema:datePublished,0.11652755,-0.39483398,-0.11291112,-0.09225396,0.079338595,0.019601276,-0.06931234,-0.0045770523,-0.026036415,0.011973236,-0.21447122,0.09912433,-0.036448937,-0.0031455457,0.22890612,-0.4053436,0.022475567,0.20642702,0.15155378,-0.13024125,0.018941917,-0.27085984,0.31955263,0.23812635,0.224216,-0.031023204,-0.10927038,0.040988095,-0.027489416,-0.17387487,-0.023500353,0.16695325,0.19650826,0.02901293,0.1459303,-0.2761734,0.13936815,-0.054786135,0.21800397,-0.16816841,-0.012846929,-0.32543492,0.22048908,-0.42457223,-0.1636718,0.07432226,0.1415882,0.13260312,-0.3384055,0.13503633
schema:director,0.06536678,-0.29741398,0.0010105106,0.03446348,0.08156133,0.15571786,0.20339209,0.18349646,0.054116257,-0.22376372,-0.39799306,0.119024284,-0.029739002,-0.073487885,0.013154468,0.028088233,0.08418731,-0.14842491,-0.023202823,0.05871609,-0.20226523,0.13604656,0.24969153,-0.16215858,0.21625328,0.06363348,-0.28865167,0.09399855,-0.030578522,-0.14229402,-0.07521729,-0.07801857,0.0053072437,0.29204568,0.0774562,-0.06343991,0.16460744,0.17374246,0.073916055,-0.07508543,0.039921436,-0.031406134,0.07448345,-0.29866287,0.17377156,-0.094395615,-0.10736593,0.06337809,-0.24039726,-0.08329823
schema:duration,-0.11045141,-0.17077821,0.18820462,0.058238585,0.37494087,0.13588509,0.12198483,-0.14475143,0.32911387,-0.015255149,-0.050384026,0.24989825,0.07639445,0.12939262,0.24060956,-0.18863943,-0.17375986,0.15636297,0.21762116,0.24456485,0.11493807,0.011900266,-0.14618354,0.021749442,0.016073842,-0.065870695,-0.19384289,0.15907532,-0.18643826,-0.24142651,-0.11406305,0.12298387,-0.19864653,0.054097362,-0.055804074,-0.24229358,0.4674953,-0.3195909,-0.13061884,-0.00934659,0.08550916,-0.08155717,-0.13487327,-0.29077935,0.15559426,0.07148975,-0.23680322,-0.23601784,-0.3564469,0.056813385
schema:genre,0.19785719,-0.07391252,-0.1595052,-0.3008495,0.004831721,-0.008352667,-0.021129917,-0.14487016,0.32667542,-0.10698581,-0.1857635,0.16334566,0.242411,0.12412178,-0.04779287,-0.25264958,-0.033642434,-0.16107391,-0.015597571,0.41936725,0.30241475,0.29065937,-0.028739618,-0.1956625,0.478421,-0.111606464,-0.30119804,0.13896467,0.21578513,-0.2547576,-0.112766035,-0.21610445,0.1101238,-0.044907898,0.24621905,-0.02138585,0.44248995,-0.020736234,0.111770384,0.023243045,-0.3529527,-0.4212333,-0.06138288,-0.30186427,-0.17475358,-0.09949144,-0.14014131,-0.3152089,-0.3438418,-0.07608043
schema:inLanguage,-0.166471,-0.37294525,0.22982378,-0.326043,0.12311618,-0.027409768,0.0742503,-0.013564256,0.16466598,0.13456255,0.037164923,-0.1784421,0.23223369,0.1015749,0.020589603,0.09812217,-0.19705352,0.22772333,-0.17203386,-0.25007498,0.14911044,-0.063207075,-0.25651836,0.195759,0.21198146,-0.10426663,-0.4551735,0.22713557,0.15802257,-0.28783688,0.2967653,0.14701493,-0.28200024,0.1632648,0.021253573,-0.011861262,0.09782103,0.05366668,-0.03461098,-0.23730454,-0.21034372,-0.14383797,-0.08422515,-0.13498452,-0.105240345,-0.3816769,-0.0643095,-0.019706855,-0.2630883,-0.03918687
schema:name,0.06830634,-0.012642328,0.10452367,-0.10555255,-0.047058586,-0.14918607,0.09228368,-0.07836586,-0.056549653,-0.06645844,0.17278686,0.065293305,-0.083609805,-0.13290061,0.09773779,-0.1844481,0.07167721,0.11494122,-0.06005036,-0.15437151,0.18079196,0.07133425,0.02723954,0.09125485,0.16924067,0.0931798,0.094746776,-0.09282832,-0.11324456,-0.11217966,-0.0774647,-0.064285584,0.10185729,0.0039878017,-0.20116128,-0.06529725,0.16984396,-0.05786565,-0.06849035,-0.15056503,-0.09848038,0.008076037,0.120034285,0.102246605,-0.09560738,0.15767762,-0.023291372,0.12625138,-0.0029669844,0.06537874
schema:productionCompany,-0.13279411,-0.17539036,0.2062521,-0.08437084,0.17800836,0.08183425,-0.09479896,0.22041164,0.12887348,0.036848176,-0.1606612,-0.06814597,0.08161733,-0.060401723,-0.069341145,-0.42165565,-0.23166236,-0.2596269,-0.11632979,0.068093985,-0.03786864,0.009035884,0.20790452,-0.077823676,-0.06257165,0.34605184,-0.29291233,0.1426757,-0.033276394,0.008765193,-0.06629756,0.2973288,-0.14881757,0.03947059,0.25574142,0.018785115,0.24696264,0.17226526,-0.06971676,-0.100709714,-0.32394075,-0.18274896,-0.012442576,-0.20861438,0.18423656,-0.121348746,-0.01581016,0.11808213,-0.3259098,0.033979196
schema:review,-0.18754509,-0.15160309,0.13646771,-0.32446852,0.31782815,0.29805338,0.17747478,0.04693344,-0.111511655,-0.2645909,0.019888528,0.027255582,-0.106216006,-0.18536648,0.2491745,-0.3860962,-0.3467062,-0.010515311,-0.16432135,-0.1339872,0.23002371,0.25237188,-0.09054945,0.12986399,0.11357182,0.31987408,-0.15449028,0.19489439,-0.247609,-0.061990086,0.15282461,-0.07119715,-0.06507664,0.040672056,0.3018206,0.15354851,0.3431206,0.009866935,0.18325225,-0.15778422,-0.0958269,-0.3586074,0.012578619,-0.17348827,-0.15976591,0.039059494,-0.37035552,-0.05972186,-0.17578304,-0.09458258
